tree
version=v3
num_class=1
num_tree_per_iteration=1
label_index=0
max_feature_idx=14
objective=lambdarank
feature_names=buy_rank session_total_interactions session_unique_aids session_length order_aid_unique_sessions order_aid_total_interactions cart_aid_unique_sessions cart_aid_total_interactions pair_count pair_count_2 order_num_recurring_aids cart_num_recurring_aids last_cart last_click cart_order_interaction_ratio
feature_infos=[0.033333333333333333:1] [1:465] [1:465] [0:599.385986328125] [1:3951] [1:4522] [1:14533] [1:37527] [1:30] [1:30] [1:4] [1:4] [1:1] [1:1] [0.25:331]
tree_sizes=3561 3630 3620 3637 3605 3606 3625 3623 3590 3641 3615 3642 3613 3649 3620 3637 3640 3619 3631 3636

Tree=0
num_leaves=31
num_cat=0
split_feature=0 12 2 12 14 0 0 2 14 2 13 1 0 0 2 14 0 0 2 4 1 4 0 2 2 14 0 14 14 3
split_gain=155050 20572.9 13584.2 9223.55 7027.5 5522.53 4620.62 9315.56 2116.99 1516.47 1073.33 963.107 1138.29 605.541 1859.85 600.249 612.559 456.762 994.004 410.686 364.326 303.956 279.119 1302.05 256.13 240.54 237.729 211.85 204.879 166.917
threshold=0.15476190476190479 1.0000000180025095e-35 8.5000000000000018 1.0000000180025095e-35 12.019230769230772 0.069047619047619066 0.29166666666666669 3.5000000000000004 6.3351449275362333 16.500000000000004 1.0000000180025095e-35 1.5000000000000002 0.75000000000000011 0.11805555555555557 6.5000000000000009 5.2507485029940133 0.046536796536796543 0.095454545454545472 11.500000000000002 1.0000000180025095e-35 5.5000000000000009 1.0000000180025095e-35 0.41666666666666669 2.5000000000000004 22.500000000000004 3.4002369668246453 0.22500000000000003 19.027777777777782 5.7282196969696981 43.427499771118171
decision_type=2 10 2 10 8 2 2 2 8 2 10 2 2 2 2 8 2 2 2 10 2 10 2 2 2 10 2 8 8 2
left_child=1 2 10 4 6 9 7 -2 17 -4 13 12 -8 -1 -15 16 24 18 -7 -6 26 -5 23 -13 -11 -22 -9 -10 -16 -18
right_child=3 -3 5 21 19 8 11 20 27 15 -12 22 -14 14 28 -17 29 -19 -20 -21 25 -23 -24 -25 -26 -27 -28 -29 -30 -31
leaf_value=-0.19043041898619317 -0.15707483398026356 0.19551844962583637 -0.17027691314773027 -0.20000000000000001 -0.20000000000000001 -0.13023430167529268 -0.10822945133702462 -0.095039346038852737 -0.073810361418695375 -0.1682522538575327 0.053675232640151893 -0.10026242250794255 0.11783957117694091 -0.17548376145768368 0.095043232100067765 -0.16160033656855891 0.045181179519627329 0.099325291329704191 0.068002609924090102 -0.057390279272223121 0.1421978497059033 0.19860498647904865 0.16719909123698073 0.15165223921595053 -0.052106211728476085 0.087104292667215102 0.098791424522031268 -0.19766647866810966 -0.12918120998140323 -0.049683431314865106
leaf_weight=26773.484767599381 1699.7212969055981 1785.48618544286 2530.1478324327036 19.150637798331445 716.74041963121272 317.91096820670646 289.53853009367594 124.43573590900633 254.00307392203831 305.77778797829524 187.91916115369531 225.25604808633216 965.20442737775738 2067.8981546975556 326.62208597772405 442.07741397153586 738.61863149231067 2053.6954186363437 1237.6863458165317 281.14484483617707 2914.6625965623534 18153.917850651866 8215.3561622968991 2301.2669757648837 500.8835057837714 1088.4069500488986 128.74012928831507 302.64701264307951 46.559260064328555 247.67143835817114
leaf_count=13261153 1174191 15842 695191 25018 700659 73066 346552 71888 74933 62129 48713 154489 284491 1146513 37439 134657 50586 165813 106274 216413 176245 117340 702508 211484 67280 182472 32900 101628 21148 41384
internal_value=0 -0.136287 -0.151742 0.147285 0.0984725 -0.0437314 0.11283 0.0408284 0.0403692 -0.117256 -0.184551 0.148576 0.065673 -0.186083 -0.138403 -0.0572343 -0.0315014 0.0683643 0.0274898 -0.159821 0.119861 0.198185 0.15826 0.129192 -0.0961332 0.127218 0.00352376 -0.14115 0.0670683 0.0213593
internal_weight=0 40119.1 38333.6 37123.5 18950.5 8931.12 17952.6 5955.97 4165.94 4765.18 29402.5 11996.6 1254.74 29214.6 2441.08 2235.03 1792.95 3609.29 1555.6 997.885 4256.25 18173.1 10741.9 2526.52 806.661 4003.07 253.176 556.65 373.181 986.29
internal_count=20500399 16103749 16087907 4396650 4254292 1572941 3337220 1637696 521714 1051227 14514966 1699524 631043 14466253 1205100 356036 221379 345153 179340 917072 463505 142358 1068481 365973 129409 358717 104788 176561 58587 91970
is_linear=0
shrinkage=0.1


Tree=1
num_leaves=31
num_cat=0
split_feature=12 0 2 14 0 0 2 13 0 13 1 14 13 2 4 10 13 1 14 1 3 2 10 1 10 0 2 4 2 0
split_gain=251941 52933.8 16391.5 7549.44 4024.03 4002.25 4788.32 3714.1 3393.95 2474.06 2321.26 2132.39 1651.01 1588.51 1273.63 1271.09 1170.49 1144.03 1101.34 1069.11 1057.15 1057.65 957.537 804.469 711.438 594.36 1285 504.781 483.517 677.76
threshold=1.0000000180025095e-35 0.18333333333333338 6.5000000000000009 3.0546164772727278 0.060661764705882359 0.75000000000000011 1.5000000000000002 1.0000000180025095e-35 0.75000000000000011 1.0000000180025095e-35 4.5000000000000009 4.0014925373134336 1.0000000180025095e-35 18.500000000000004 1.0000000180025095e-35 1.0000000180025095e-35 1.0000000180025095e-35 4.5000000000000009 8.0138888888888911 3.5000000000000004 1.0000000180025095e-35 1.5000000000000002 1.0000000180025095e-35 2.5000000000000004 3.0000000000000004 0.22500000000000003 4.5000000000000009 1.0000000180025095e-35 5.5000000000000009 0.13392857142857145
decision_type=10 2 2 8 2 2 2 10 2 10 2 8 10 2 10 10 10 2 8 2 2 2 10 2 8 2 2 10 2 2
left_child=1 2 16 5 13 6 -3 8 10 11 -5 -6 19 -4 -2 -7 28 -9 -12 -8 -10 -22 -16 -23 -21 26 -26 -25 -1 -30
right_child=14 3 4 7 9 15 12 17 20 -11 18 -13 -14 -15 22 -17 -18 -19 -20 24 21 23 -24 27 25 -27 -28 -29 29 -31
leaf_value=-0.078590615901595912 -0.093652566995674674 -0.070186652400323277 -0.071115902184514496 -0.06414021788679751 -0.010293057272519546 0.035144227564724621 -0.028216506565518586 -0.00018727447599064688 -0.036395457121648003 0.08039828519818025 -0.020687510963852112 -0.052045568145703894 0.054341762846072776 -0.028317516618052724 0.083375056027320107 -0.024616308447129292 0.0043267603114949971 0.055049727873889953 -0.065050253744716444 -0.036426067063948929 0.051811908820274283 -0.045722432837960264 0.052186194735022819 -0.085254729077522906 -0.077409450616953729 0.012700593873573505 0.0038080033883847926 0.0064356560180879353 -0.071141703048375429 -0.017946642937423093
leaf_weight=52838.139580390125 103.16642217477784 2276.3433876374038 6218.8231652510585 6607.5563832611078 13657.019281216082 14272.39875148749 2556.8497406702954 2043.0932909711264 2010.5003747951705 640.50898565840907 9888.627146322222 3940.331106209429 1628.9778417774942 3328.4995320067974 63431.598555040546 948.9489728952758 441.48571870662272 1732.0613569032867 1629.5678506289842 930.20662912540138 1017.0195759630296 942.78726820799056 2560.2421228326857 154.14771115034819 593.15617423155345 14785.038485081284 2721.7139811675297 5723.425506053376 2688.5718110280577 770.35935383161996
leaf_count=13746901 26792 324283 1087650 1254140 525403 222961 200481 152264 222097 7927 318163 512832 17004 251923 119248 4681 51707 32176 244377 9075 15893 74416 12160 56724 36905 218858 44679 132973 530313 45393
internal_value=0 -0.0344779 -0.0613607 -0.00312063 -0.029896 0.011131 -0.000982625 -0.0213965 -0.0276789 -0.0161287 -0.0405161 -0.0196421 0.00580289 -0.056195 0.0818906 0.0314186 -0.0767691 0.0251558 -0.0269639 0.00214009 -0.00405099 0.00424624 0.082165 -0.00284653 0.00621874 0.00841038 -0.0107249 0.00403095 -0.077405 -0.0592943
internal_weight=0 156986 84523.7 72462.4 27785.2 40713.6 25492.3 31748.8 27973.6 18237.9 18125.8 17597.4 23215.9 9547.32 66095 15221.3 56738.6 3775.15 11518.2 21587 9847.88 7837.38 65991.8 6820.36 19030.1 18099.9 3314.87 5877.57 56297.1 3458.93
internal_count=20500399 20342199 16760049 3582150 2385735 1078927 851285 2503223 2318783 1046162 1816680 1038235 527002 1339573 158200 227642 14374314 184440 562540 509998 502103 280006 131408 264113 309517 300442 81584 189697 14322607 575706
is_linear=0
shrinkage=0.05


Tree=2
num_leaves=31
num_cat=0
split_feature=12 0 2 0 2 4 13 14 13 1 14 0 13 0 2 14 1 14 2 14 10 0 2 13 0 2 2 14 2 0
split_gain=166245 60747.6 9988.19 7941.71 8043 3398.01 3006.47 2221.16 2070.26 1998.28 1825.14 1315.14 1144.69 933.708 1954.84 749.079 589.186 576.314 515.379 480.174 498.042 427.162 954.897 405.704 383.045 768.961 370.587 367.089 348.773 1181.99
threshold=1.0000000180025095e-35 0.13392857142857145 9.5000000000000018 0.41666666666666669 2.5000000000000004 1.0000000180025095e-35 1.0000000180025095e-35 7.0043859649122817 1.0000000180025095e-35 1.5000000000000002 3.6677489177489182 0.051315789473684217 1.0000000180025095e-35 0.75000000000000011 1.5000000000000002 3.0009328358208962 2.5000000000000004 42.250000000000007 20.500000000000004 4.2505319148936183 3.0000000000000004 0.10555555555555557 7.5000000000000009 1.0000000180025095e-35 0.22500000000000003 4.5000000000000009 2.5000000000000004 4.588989441930619 4.5000000000000009 0.22500000000000003
decision_type=10 2 2 2 2 10 10 8 10 2 8 2 10 2 2 10 2 8 2 10 8 2 2 10 2 2 2 10 2 2
left_child=1 2 12 4 23 -5 7 15 10 27 11 18 21 14 -11 28 -16 -2 -4 20 -15 -1 -23 -3 25 -17 -18 -7 29 -6
right_child=17 3 8 5 6 9 -8 -9 -10 13 -12 -13 -14 19 16 24 26 -19 -20 -21 -22 22 -24 -25 -26 -27 -28 -29 -30 -31
leaf_value=-0.071492540591847065 0.072329624645899246 -0.063051862104307091 -0.063759415937002295 -0.079294619691999427 -0.054541120670279997 0.0020252929119420576 0.062483704568102753 -0.056673860142681415 0.07142460988621388 -0.071853183379881155 -0.055763190101086518 -0.0080389408152675024 0.0070387131701089376 0.00048504817335000061 -0.015965319772906345 -0.067786529687719574 0.045657674175418994 -0.067700565081894398 -0.023464500653656611 0.020753579107321878 0.044599081244479789 -0.06525765632125477 -0.0052219655822281713 0.032285527058672818 -0.0015542612348468324 -0.01196940566824616 0.022632136681590712 -0.03228254452898912 0.010905389130745171 0.011670802902317371
leaf_weight=52606.905002970831 56865.411415445618 6421.9882254640106 1765.1774089285173 796.32982228777837 950.65419713314623 3584.6985812569037 1830.1339516788721 1847.375984180253 531.64226312609389 555.75917484564707 4535.1221709391102 8453.6725319054676 484.85634860442951 674.84941528271884 851.58403145894408 797.60368226212449 2180.8140701754019 73.572829309967346 1441.6128938618931 3224.6440470624948 12323.203173281858 4725.3938162258128 770.30411579564679 113.5625363192521 3689.236549895606 2725.5374727264862 8794.2808921590913 996.4229450863786 11564.586891193641 2316.4444886399433
leaf_count=12865598 131180 1944921 232488 313007 128398 303498 25365 408238 5420 38479 662892 303087 43386 5700 94743 165054 40332 27020 75375 153657 198928 1182199 45100 24311 203405 161260 221254 189467 232389 74248
internal_value=0 -0.0290212 -0.0597391 0.0059052 -0.0118646 0.0227728 0.000720527 -0.00401066 -0.0256619 0.025222 -0.0288489 -0.0183811 -0.0694684 0.030132 0.0197922 0.000402714 0.0240988 0.0721487 -0.0456448 0.0380241 0.0423087 -0.0701069 -0.0568428 -0.0613953 -0.0128146 -0.0246058 0.0272074 -0.00543688 0.00683006 -0.00759542
internal_weight=0 141554 75314.7 66239.7 32257.1 33982.6 25721.6 23891.4 16727.2 33186.3 16195.6 11660.5 58587.5 28605.1 12382.4 22044.1 11826.7 56939 3206.79 16222.7 12998.1 58102.6 5495.7 6535.55 7212.38 3523.14 10975.1 4581.12 14831.7 3267.1
internal_count=20500399 20342199 15415545 4926654 3367589 1559065 1398357 1372992 1279262 1246058 1273842 610950 14136283 753093 394808 964754 356329 158200 307863 358285 204628 14092897 1227299 1969232 529719 326314 261586 492965 435035 202646
is_linear=0
shrinkage=0.05


Tree=3
num_leaves=31
num_cat=0
split_feature=12 0 2 14 0 2 0 13 2 1 13 14 14 14 13 0 14 10 13 4 14 0 2 0 13 13 0 2 14 2
split_gain=126986 48570.5 9048.32 4894.71 4346.94 5076.85 2907.56 1653.16 1504.99 1191.58 962.145 826.771 700.886 654.917 605.382 573.96 545.794 518.309 483.869 445.543 357.588 335.198 675.088 323.275 273.795 269.925 267.981 881.615 259.12 250.903
threshold=1.0000000180025095e-35 0.15476190476190479 7.5000000000000009 16.019230769230774 0.41666666666666669 2.5000000000000004 0.080128205128205135 1.0000000180025095e-35 13.500000000000002 1.5000000000000002 1.0000000180025095e-35 4.8576036866359456 3.4530220103578162 4.0014925373134336 1.0000000180025095e-35 0.039230769230769243 3.5180105035526723 3.0000000000000004 1.0000000180025095e-35 1.0000000180025095e-35 2.7686733556298777 0.75000000000000011 1.5000000000000002 0.75000000000000011 1.0000000180025095e-35 1.0000000180025095e-35 0.29166666666666669 3.5000000000000004 5.4645989974937352 1.5000000000000002
decision_type=10 2 2 8 2 2 2 10 2 2 10 8 10 8 10 2 10 8 10 10 8 2 2 2 10 10 2 2 8 2
left_child=1 2 14 4 5 24 8 16 -4 -6 11 -8 17 15 20 -10 26 -11 23 -2 -1 22 -19 29 -3 -17 27 -7 -16 -14
right_child=19 3 6 -5 9 7 10 -9 13 12 -12 -13 18 -15 28 25 -18 21 -20 -21 -22 -23 -24 -25 -26 -27 -28 -29 -30 -31
leaf_value=-0.078535494394885996 -0.099673841094463561 -0.072857895764910405 -0.083581729253019488 -0.088643064280057554 -0.0018645770629567486 -0.072709783333065159 -0.0019206289559581813 0.076133934192545341 -0.070769600697698831 -0.0047097172736058849 0.083988956348938243 -0.060936735539173593 -0.085236026365337239 -0.072088397182302075 0.021637508405539855 -0.015805905087489035 -0.017149329442467512 -0.071602941957013944 0.056480958688214122 0.0883056016160918 -0.090179948534001811 0.055303088173351653 0.040182742297301122 0.026223258216652768 0.045085550621196353 0.087160008645104231 0.022385915732150794 0.0084511748888405278 -0.096637610069344987 0.0016003044602393983
leaf_weight=17719.059849606012 56.09899684775155 4342.290159946424 4921.4835015449207 2104.2923670315649 4030.9416534607299 638.53756690653972 7282.0328744675498 1481.4440271975473 932.50599517812952 903.99914857093245 507.83110604342073 1233.7712469199905 156.18570900568739 1618.4644527602941 331.09756605699658 4085.9661768522928 4536.1923558806302 248.4430311373435 1418.3079625428654 51923.175105004571 34624.718216146983 9616.1802262323909 7156.4733140796889 3926.3564479211345 89.275682352483273 116.37799854949117 4723.1903692991473 8692.7499069113983 109.56856609601527 2782.2338327695616
leaf_count=3848650 26792 1313222 846958 825003 472708 102770 261671 18454 88092 9000 4329 202775 17427 269592 26032 211815 447746 20136 44996 131408 10305512 148779 150706 161700 16285 878 100816 233540 21603 171004
internal_value=0 -0.0351379 -0.0709338 0.0111335 0.0149688 -0.00590036 -0.0335758 0.00835809 -0.0555428 0.0318798 -0.00515489 -0.0104709 0.0370699 -0.0351093 -0.0855831 -0.0234538 0.0029572 0.0444809 0.0210319 0.0881027 -0.0862381 0.0470934 0.0364322 0.0137079 -0.0704819 -0.0129544 0.00944674 0.00289735 -0.00777078 -0.0030153
internal_weight=0 130330 73482.9 56847.1 54742.8 24503.7 20698.4 20072.1 11674.8 30239.1 9023.64 8515.8 26208.2 6753.31 52784.4 5134.85 18590.7 17925.1 8283.08 51979.3 52343.8 17021.1 7404.92 6864.78 4431.57 4202.34 14054.5 9331.29 440.666 2938.42
internal_count=20500399 20342199 16087907 4254292 3429289 2232833 1886110 903326 1417335 1196456 468775 464446 723748 570377 14201797 300785 884872 328621 395127 158200 14154162 319621 170842 350131 1329507 212693 437126 336310 47635 188431
is_linear=0
shrinkage=0.0666667


Tree=4
num_leaves=31
num_cat=0
split_feature=12 0 2 4 0 0 2 2 14 13 1 13 14 13 0 13 14 10 14 14 14 4 0 2 2 14 13 1 10 10
split_gain=100882 39076.1 8908.14 3590.37 3140 2221.22 3324.22 1362.97 1068.86 1008.79 998.985 922.479 603.863 571.359 557.51 433.188 425.91 401.785 398.467 397.267 353.566 351.013 320.33 294.337 286.414 284.568 279.904 238.947 238.616 219.453
threshold=1.0000000180025095e-35 0.18333333333333338 6.5000000000000009 1.0000000180025095e-35 0.080128205128205135 0.41666666666666669 2.5000000000000004 13.500000000000002 1.0312500000000002 1.0000000180025095e-35 1.5000000000000002 1.0000000180025095e-35 2.800826446280992 1.0000000180025095e-35 0.046536796536796543 1.0000000180025095e-35 8.9843750000000018 3.0000000000000004 3.032522474881016 4.0529115341545365 2.7429882044560947 1.0000000180025095e-35 0.75000000000000011 1.5000000000000002 1.5000000000000002 2.3860985407027004 1.0000000180025095e-35 2.5000000000000004 1.5000000000000002 3.0000000000000004
decision_type=10 2 2 10 2 2 2 2 10 10 2 10 10 10 2 10 8 8 10 10 8 10 2 2 2 10 10 2 8 8
left_child=1 2 13 -3 7 6 -5 -4 -6 18 25 19 17 20 -9 22 26 -12 28 29 -1 -2 23 -14 -24 -7 -16 -26 -10 -8
right_child=21 3 4 5 8 10 11 14 9 -11 12 -13 15 -15 16 -17 -18 -19 -20 -21 -22 -23 24 -25 27 -27 -28 -29 -30 -31
leaf_value=-0.10861593143683271 -0.14087927257568109 -0.13905808285403884 -0.11628418776659169 -0.09508480562539981 -0.13445693717237456 0.038056212456189106 -0.052666395177161207 -0.089693090660810423 -0.099010449758542618 0.12050242221610961 -0.0085313472264418443 0.10241539500530233 -0.11138620972703067 -0.00385867005187475 -0.021924651481845588 0.077352087350329529 -0.13057433732226906 0.069689083166768626 -0.036457964668142259 -0.025611530626784271 -0.12689930213642095 0.12366518611214468 0.09558024834659358 0.011344395923033216 -0.029523373513984555 -0.021577936220839169 0.12808252587566046 0.040132049010921489 0.0084508933849277088 0.020749240445438438
leaf_weight=15731.731961144484 50.209326480166055 1368.6456829923554 5727.036651662318 3160.2224527557846 634.25323477305938 1125.1431320521515 422.24438395304605 2161.1705618301639 213.11251194076613 643.86608918197453 694.82412697118707 1180.2681293473579 204.89493796788156 420.68554258765653 3567.3383316202089 1948.584301144816 360.4388824821217 11961.791837731842 3419.7193457448157 2519.3221295783296 32278.89353961841 47498.353669406381 835.67589126061648 4219.6617150732782 555.35697430558503 2770.7054997510277 128.88393696956336 4350.1240821368992 6793.4184091328643 11396.772521015373
leaf_count=3785962 26792 608953 1151168 1032454 118050 79341 6997 285685 4410 5391 7305 16556 24819 51707 210407 61328 73213 210783 322027 290519 10536645 131408 12762 231009 57549 413624 1072 147538 214312 380613
internal_value=0 -0.0485685 -0.0953259 0.0206166 -0.0450176 0.0252324 -0.00160069 -0.0810871 -0.00820704 -0.000973657 0.0427165 0.0174365 0.0501197 -0.119892 -0.0486683 0.0341606 -0.0268124 0.0653949 -0.00847533 0.0104414 -0.120908 0.123386 0.0258816 0.00566092 0.0414651 -0.00435526 -0.016694 0.0322463 0.00518232 0.0181264
internal_weight=0 120795 72080.5 48714.2 23649.2 47345.6 18678.8 11944.9 11704.4 11070.1 28666.8 15518.6 24770.9 48431.3 6217.83 12114.3 4056.66 12656.6 10426.3 14338.3 48010.6 47548.6 10165.7 4424.56 5741.16 3895.85 3696.22 4905.48 7006.53 11819
internal_count=20500399 20342199 16760049 3582150 2385735 2973197 1727139 1721545 664190 546140 1246058 694685 753093 14374314 570377 535005 284692 218088 540749 678129 14322607 158200 473677 255828 217849 492965 211479 205087 218722 387610
is_linear=0
shrinkage=0.1


Tree=5
num_leaves=31
num_cat=0
split_feature=12 0 2 0 2 4 0 14 14 13 14 13 13 0 2 2 1 14 1 13 14 1 4 3 13 10 14 10 2 6
split_gain=81717.6 31639.5 5865.7 3656.82 4257.31 2283.32 1287.6 1023.38 890.037 825.596 697.692 646.071 578.354 498.426 1056.81 496.115 476.662 404.652 371.231 370.286 319.986 296.932 283.7 270.324 261.427 252.963 245.085 214.388 207.119 198.208
threshold=1.0000000180025095e-35 0.13392857142857145 9.5000000000000018 0.29166666666666669 3.5000000000000004 1.0000000180025095e-35 0.057189542483660136 1.0312500000000002 4.276521239954076 1.0000000180025095e-35 9.4721362229102173 1.0000000180025095e-35 1.0000000180025095e-35 0.75000000000000011 1.5000000000000002 18.500000000000004 1.5000000000000002 3.1085995085995086 3.5000000000000004 1.0000000180025095e-35 2.6195238095238103 2.5000000000000004 1.0000000180025095e-35 43.427499771118171 1.0000000180025095e-35 1.0000000180025095e-35 4.588989441930619 3.0000000000000004 29.500000000000004 1.5000000000000002
decision_type=10 2 2 2 2 10 2 10 10 10 8 10 10 2 2 2 2 10 2 10 8 2 10 2 10 10 8 8 2 10
left_child=1 2 11 4 -3 -5 15 -6 13 17 12 20 23 14 -7 -4 -15 29 -10 21 -1 -16 -2 -8 -20 -18 -17 -23 -29 -9
right_child=22 3 6 5 7 8 10 9 18 -11 -12 -13 -14 16 19 26 25 -19 24 -21 -22 27 -24 -25 -26 -27 -28 28 -30 -31
leaf_value=-0.10192064872637469 -0.13455008342949096 -0.10126753159463019 -0.1121136542965091 -0.13264166531096075 -0.12527664285475659 -0.072354730265482753 -0.0043326491868462685 0.14129306561723801 -0.029047444906851558 0.10513789351258225 -0.12123673860623858 0.010636547920159986 0.11620852617622779 0.016141481361620493 -0.039342777734432788 -0.031907088786963286 0.068029961032738243 -0.023048745601166026 0.0086056977053831692 0.085681001916701222 -0.12045318293831589 -0.029584814245520598 0.11702248231158646 -0.048353599113570844 0.078628493409245617 -0.00060412759693469361 -0.11039201921056363 0.033540043907865018 0.10024585758988265 0.013965376366211882
leaf_weight=13360.82525393652 44.872875148081221 5317.609841351863 2440.6081456675893 851.95998513058294 584.50932569405995 974.30295966845006 6121.7828943809727 124.11469713086262 2597.1251023120712 852.11915569240227 591.02126491279341 414.1769251874648 354.39125245902687 2536.0681525969412 587.37624486442655 1916.0456777709769 10091.526026849402 3940.5126266175648 3579.2510985834524 1325.5075281909667 30779.892414641683 514.02215819689445 43245.673207800835 1806.6598178771092 626.50224959803745 567.18654971569777 502.14456693414832 10546.746975637856 486.96316757984459 8171.316798518179
leaf_count=3321074 26792 1891238 490915 418890 140516 277405 250577 1079 501824 10547 136347 43386 2960 172816 95633 132445 199897 391323 226322 22860 10771823 7096 131408 164510 17532 5730 101508 285387 5825 254734
internal_value=0 -0.0449056 -0.0960655 0.0100368 -0.0253451 0.0290793 -0.0389252 0.00418303 0.0330808 0.00996467 -0.0162671 -0.113677 -0.00877704 0.0410585 0.0282172 -0.0803066 0.0551066 0.00333674 0.00067957 0.0354968 -0.114844 0.0300152 0.116762 -0.0143637 0.0190365 0.0643777 -0.0482047 0.0335431 0.036484 0.0158704
internal_weight=0 112562 58287.5 54274.7 18990.2 35284.5 13732.7 13672.6 34432.6 13088.1 8873.86 44554.9 8282.83 27629.7 14434.9 4858.8 13194.8 12235.9 6802.88 13460.6 44140.7 12135.1 43290.5 7928.44 4205.75 10658.7 2418.19 11547.7 11033.7 8295.43
internal_count=20500399 20342199 15415545 4926654 2689437 2237217 1279262 798199 1818327 657683 554394 14136283 418047 1072649 694206 724868 378443 647136 745678 416801 14092897 393941 158200 415087 243854 205627 233953 298308 291212 255813
is_linear=0
shrinkage=0.1


Tree=6
num_leaves=31
num_cat=0
split_feature=12 0 2 0 2 4 14 0 13 1 14 13 13 2 0 0 2 1 2 0 2 14 14 14 10 5 14 13 14 3
split_gain=85565.5 32995 6163.52 3906.17 4458.65 1877.56 1471.05 1274.07 1183.85 901.667 745.542 671.686 559.872 555.665 1601.7 485.36 750.06 509.68 387.436 322.838 622.584 307.643 295.424 291.673 286.522 278.214 276.699 246.167 234.461 222.786
threshold=1.0000000180025095e-35 0.13392857142857145 9.5000000000000018 0.41666666666666669 2.5000000000000004 1.0000000180025095e-35 7.0043859649122817 0.054093567251461992 1.0000000180025095e-35 1.5000000000000002 5.00326797385621 1.0000000180025095e-35 1.0000000180025095e-35 4.5000000000000009 0.22500000000000003 0.75000000000000011 1.5000000000000002 2.5000000000000004 19.500000000000004 0.10555555555555557 7.5000000000000009 42.250000000000007 3.55036231884058 4.5564663023679426 3.0000000000000004 80.500000000000014 2.4949412365866128 1.0000000180025095e-35 2.6453079178885637 36.527000427246101
decision_type=10 2 2 2 2 10 8 2 10 2 8 10 10 2 2 2 2 2 2 2 2 8 10 10 8 8 10 10 10 2
left_child=1 2 11 4 27 -5 8 18 13 22 12 19 28 14 -6 16 -11 -18 -4 -1 -21 -2 -7 24 -17 -8 -15 -3 -9 -16
right_child=21 3 7 5 6 9 25 10 -10 15 -12 -13 -14 26 29 23 17 -19 -20 20 -22 -23 -24 -25 -26 -27 -28 -29 -30 -31
leaf_value=-0.039695020400891498 0.039472512989876585 -0.034077245696372403 -0.036950847533058544 -0.044334609241514764 -0.036640190228894476 0.0053695122963358776 -0.016475901133245961 9.7767974517015818e-05 0.033758359251150949 -0.035473680878862171 -0.030263643276631117 0.0037952668299126809 0.039584675421315677 0.0096476656255245537 0.00751261433272476 -0.0001209216522038732 -0.013828653342125758 0.014295827823323577 -0.017235934481862364 -0.035104976593875493 0.0020570223058746428 -0.039261708335199874 -0.013964848141963216 0.0093501593403297716 0.02346333924725777 -0.04385334618636523 0.00024594401338921574 0.019625776261898206 -0.011523431522314291 -0.02791639151249559
leaf_weight=40714.553135903494 44186.452840703772 5201.7745931802783 2412.8081068048486 641.00140701793134 1524.1242122048279 2377.637949670665 892.33915734043694 4856.6010934102815 1343.1744588017464 382.90256067714654 1260.2483903705142 415.51897084841039 333.04940280225128 6570.0980698869098 2888.5129717843374 605.2211980316788 777.26407941686921 9076.7054334597196 2047.3777845189907 3690.2430501051713 579.57806475833058 55.210311457514763 1392.2954719482223 2389.8541919847485 10542.277878396446 766.86919469002169 7390.834363789123 96.601075168931857 3199.9407666322077 211.66002752119675
leaf_count=12865598 131180 1944921 474188 313007 293452 220914 178609 162090 17468 38479 246025 43386 2412 143209 143207 5847 94743 261586 194988 1182199 45100 27020 272051 140522 211916 237526 350716 24311 199559 34170
internal_value=0 -0.0152031 -0.0324104 0.00339122 -0.00569827 0.0120617 0.00102664 -0.0131679 0.00353739 0.0133742 -0.00635819 -0.0383909 -0.00276722 0.00135329 -0.00866136 0.0157758 0.0102988 0.0120774 -0.027901 -0.0387805 -0.0300607 0.0393743 -0.00177097 0.0199174 0.0221829 -0.0291295 0.00467045 -0.0330981 -0.004518 0.00509375
internal_weight=0 114581 59509.9 55071.1 26886 28185.2 21587.6 14110 19928.4 27544.2 9649.84 45399.9 8389.59 18585.2 4624.3 23774.2 10236.9 9853.97 4460.19 44984.4 4269.82 44241.7 3769.93 13537.4 11147.5 1659.21 13960.9 5298.38 8056.54 3100.17
internal_count=20500399 20342199 15415545 4926654 3367589 1559065 1398357 1279262 982222 1246058 610086 14136283 364061 964754 470829 753093 394808 356329 669176 14092897 1227299 158200 492965 358285 217763 416135 493925 1969232 361649 177377
is_linear=0
shrinkage=0.0333333


Tree=7
num_leaves=31
num_cat=0
split_feature=12 0 2 14 0 2 0 14 13 2 14 13 1 0 13 13 2 0 10 14 1 2 14 13 4 14 0 2 0 0
split_gain=68366 26520.6 5328.08 2963.91 2701.08 3359.53 1229.45 715.752 705.093 602.324 529.033 491.776 489.034 486.366 471.872 409.841 299.295 687.089 291.314 274.601 261.461 285.674 249.079 239.811 234.125 233.317 212.831 211.805 295.7 211.359
threshold=1.0000000180025095e-35 0.13392857142857145 8.5000000000000018 14.849002849002851 0.29166666666666669 3.5000000000000004 0.06458333333333334 2.6004807692307694 1.0000000180025095e-35 16.500000000000004 10.577380952380954 1.0000000180025095e-35 3.5000000000000004 0.75000000000000011 1.0000000180025095e-35 1.0000000180025095e-35 5.5000000000000009 0.22500000000000003 1.0000000180025095e-35 8.4732057416267956 1.5000000000000002 1.5000000000000002 2.6195238095238103 1.0000000180025095e-35 1.0000000180025095e-35 3.0009328358208962 0.75000000000000011 4.5000000000000009 0.18333333333333338 0.039230769230769243
decision_type=10 2 2 8 2 2 2 10 10 2 8 10 2 2 10 10 2 2 10 8 2 2 8 10 10 10 2 2 2 2
left_child=1 2 15 4 5 -3 9 18 16 -4 11 25 13 -9 26 22 17 27 -6 23 -15 -22 -1 29 -2 -8 -14 -7 -29 -11
right_child=24 3 6 -5 7 8 10 12 -10 19 -12 -13 14 20 -16 -17 -18 -19 -20 -21 21 -23 -24 -25 -26 -27 -28 28 -30 -31
leaf_value=-0.066197674252543331 -0.086458686579334254 -0.061821890878178055 -0.070822476579825738 -0.075094018052989792 0.03352656351710203 -0.076446452697760583 -0.00097085908343255527 -0.030137431354115524 0.065954413473819362 -0.059366242217392402 -0.079333450032333663 0.073822948733550456 0.0070141466121838658 -0.0087463340484250588 0.054426981256501951 -0.00360730143944199 0.0069976103500340898 0.017045525733324088 -0.0097273874280970705 -0.086153025676137598 0.051143561745791169 0.0044085330826695926 -0.077795441129344278 0.090743502310058302 0.074825006777606118 -0.026796011327452577 0.026449891208745004 -0.074546893021688432 0.0050604038952395958 -0.016030892378134938
leaf_weight=11824.560147798678 40.042634731624275 4508.3263606715482 2890.116085237707 1934.9874249126879 13683.860661928658 666.24335664173122 5185.397353596054 2051.1393415655475 793.78472800785676 645.3797945077531 452.06779966992326 335.36486243922263 6537.5869477367378 1968.2817097520456 1498.4854481136426 368.25204790243879 9118.1060456009582 1349.5560611758847 728.89684665715322 336.53927804430714 1003.8813156022225 1380.9591385275126 27074.387585529243 80.708314758725464 39607.909432832152 2220.6669402702828 4058.6881912029348 343.31387485167943 523.746426741709 2223.824138032156
leaf_count=3257401 26792 1595551 651793 957169 418961 128527 180774 530417 10132 86916 120044 2987 279654 226639 29490 42694 353714 62384 8702 83702 21274 106148 10607350 811 131408 218651 114257 58359 25276 162422
internal_value=0 -0.0279826 -0.0608964 0.00586992 0.0089898 -0.0123345 -0.0261631 0.0202009 0.00510271 -0.0486223 -0.00923242 -0.0051388 0.011523 -0.00337295 0.0194105 -0.0736073 0.00107777 -0.0176459 0.0313391 -0.0290994 0.00923816 0.0240813 -0.0742699 -0.0225905 0.0746621 -0.00871439 0.0144586 -0.04818 -0.0264602 -0.0257785
internal_weight=0 105787 53637.3 52149.8 50214.9 17303.1 14370.1 32911.8 12794.8 6176.57 8193.5 7741.43 18499 6404.26 12094.8 39267.2 12001 2882.86 14412.8 3286.45 4353.12 2384.84 38898.9 2949.91 39648 7406.06 10596.3 1533.3 867.06 2869.2
internal_count=20500399 20342199 15415545 4926654 3969485 2233943 1508100 1735542 638392 985644 522456 402412 1307879 884478 423401 13907445 628260 274546 427663 333851 354061 127422 13864751 250149 158200 399425 393911 212162 83635 249338
is_linear=0
shrinkage=0.0666667


Tree=8
num_leaves=31
num_cat=0
split_feature=12 0 2 0 2 4 14 0 14 13 14 13 1 0 13 14 0 2 13 14 14 2 10 14 6 7 1 2 10 2
split_gain=56239.2 21825.2 4283.99 2740.5 3427.74 1513.59 759.175 748.323 696.538 675.436 464.156 425.654 421.742 601.214 407.756 394.26 389.271 380.172 367.397 270.268 263.286 248.894 241.323 213.972 189.954 184.392 178.247 264.193 171.372 171.026
threshold=1.0000000180025095e-35 0.11805555555555557 10.500000000000002 0.29166666666666669 3.5000000000000004 1.0000000180025095e-35 1.0312500000000002 0.051315789473684217 5.00326797385621 1.0000000180025095e-35 1.0312500000000002 1.0000000180025095e-35 2.5000000000000004 0.75000000000000011 1.0000000180025095e-35 3.1085995085995086 0.75000000000000011 1.5000000000000002 1.0000000180025095e-35 2.5857374017568198 2.7840545165627675 20.500000000000004 3.0000000000000004 18.041666666666668 1.5000000000000002 2.5000000000000004 1.5000000000000002 1.5000000000000002 3.0000000000000004 29.500000000000004
decision_type=10 2 2 2 2 10 10 2 10 10 10 10 2 2 10 10 2 2 10 8 10 2 8 8 10 10 2 2 8 2
left_child=1 2 11 4 -3 -5 -6 21 12 15 -9 19 13 -7 16 24 17 -14 20 -1 -12 -4 -18 -2 -8 -26 -15 -28 -27 -30
right_child=23 3 7 5 6 8 9 10 -10 -11 18 -13 14 26 -16 -17 22 -19 -20 -21 -22 -23 -24 -25 25 28 27 -29 29 -31
leaf_value=-0.093799474044587952 0.107921220692653 -0.091307548759284943 -0.10192211312216833 -0.12421918932608965 -0.11315786501549199 -0.048710470381661659 0.12811502091145832 -0.12390653822510084 -0.011338369846680695 0.093429650063861738 0.0019829556370787919 0.0024899886874754557 -0.10453177146300252 0.0087379418352488119 0.077694728066290367 -0.024630426728456233 -0.014257533289486516 0.024804762080158888 0.10609917521098333 -0.1127735064526529 -0.039095328934480311 -0.044677202927150467 0.056396168654097058 -0.020261299861265916 -0.14635201287761623 -0.057956055202565387 0.082883196614003618 0.009414507998603357 0.010628022844063438 0.067356105047676224
leaf_weight=10847.36157463619 35622.890662191203 5509.7440285184421 1565.6587853063829 685.25428546511102 558.74287641153205 1411.9357453439152 139.05567073682323 371.45870686293347 4322.1772402666975 826.07756722252816 4065.2084616981447 359.13825334527064 231.80905012099538 2590.6679891264066 2346.1437222503591 4310.0943972660461 519.7239803452976 11600.736652922002 265.94134198548272 24379.441443190619 2532.1556108835503 1475.1266726700123 6921.7366162661929 130.70421844063094 74.485026155831292 340.01803292240947 1050.9079359918833 916.16113439179026 7887.1313321879134 569.85381110012531
leaf_count=3127453 129851 2363768 362623 418890 168568 413742 1329 92916 577356 11972 152562 39724 21725 202456 38919 492810 5018 344611 2690 10527900 274489 162560 140357 28349 5300 6175 16362 57781 301802 10341
internal_value=0 -0.0389345 -0.0894032 0.00489173 -0.0240349 0.0228306 0.00117033 -0.0325262 0.0259882 0.00568587 -0.0150308 -0.105827 0.0318358 0.0083068 0.0383325 0.000244453 0.0335411 0.022271 -0.00913819 -0.106931 -0.0137834 -0.0741518 0.0514616 0.107453 0.0121431 0.0103253 0.0259701 0.0486652 0.0116519 0.0144505
internal_weight=0 98673.9 45861.5 52812.5 20215.2 32597.3 14705.5 10275.5 31912 14146.7 7234.76 35585.9 27589.8 5969.67 21620.2 13320.6 19274 11832.5 6863.31 35226.8 6597.36 3040.79 7441.46 35753.6 9010.54 8871.49 4557.74 1967.07 8797 8456.99
internal_count=20500399 20342199 14742917 5599282 3362065 2237217 998297 1047840 1818327 829729 522657 13695077 1240971 690341 550630 817757 511711 366336 429741 13655353 427051 525183 145375 158200 324947 323618 276599 74143 318318 312143
is_linear=0
shrinkage=0.1


Tree=9
num_leaves=31
num_cat=0
split_feature=12 0 2 14 0 2 0 13 14 2 13 14 4 14 13 10 1 13 13 0 10 4 1 0 2 14 13 2 0 2
split_gain=62628.1 21900.5 4953.11 2520.66 2195.22 2833.99 1116.22 933.595 584.149 565.143 476.142 493.172 464.792 438.285 384.902 321.574 315.18 272.009 263.926 261.248 258.458 239.44 234.773 243.583 385.416 224.133 217.474 203.265 203.099 713.815
threshold=1.0000000180025095e-35 0.13392857142857145 8.5000000000000018 8.184697855750489 0.41666666666666669 2.5000000000000004 0.06458333333333334 1.0000000180025095e-35 3.0546164772727278 16.500000000000004 1.0000000180025095e-35 4.1121031746031749 1.0000000180025095e-35 3.0009328358208962 1.0000000180025095e-35 1.0000000180025095e-35 1.5000000000000002 1.0000000180025095e-35 1.0000000180025095e-35 0.75000000000000011 3.0000000000000004 1.0000000180025095e-35 1.5000000000000002 0.75000000000000011 1.5000000000000002 4.588989441930619 1.0000000180025095e-35 1.5000000000000002 0.22500000000000003 5.5000000000000009
decision_type=10 2 2 8 2 2 2 10 10 2 10 8 10 10 10 10 2 10 10 2 8 10 2 2 2 8 10 2 2 2
left_child=1 2 14 4 5 26 9 13 20 -4 11 -8 -5 28 -1 21 -10 19 -14 -18 -6 -2 -22 24 -24 -11 -3 -21 29 -7
right_child=15 3 6 12 8 7 10 -9 16 25 -12 -13 18 -15 -16 -17 17 -19 -20 27 22 -23 23 -25 -26 -27 -28 -29 -30 -31
leaf_value=-0.054270195677350641 -0.065653248782274951 -0.045201949832877522 -0.051390439224637888 -0.062036797043343264 -0.0069492551956453338 -0.035137291747713524 -0.0019926207735819412 0.044594863147866981 -0.014987410126192164 -0.013849037318832925 0.052741738629517393 -0.035577391375521669 -0.031658062939850282 -0.011500138962765383 -0.0012093174655024199 0.031208593122922512 -0.0043845038782767539 0.030997972183740358 0.020096868172702006 0.042957014980910223 0.0068007312396791836 0.055916041981987179 -0.052224324937688665 0.03219949840853311 0.020539045793500799 -0.048327612287039606 0.036852244622003219 0.010193053011186228 0.011324679388848947 0.007207034766734878
leaf_weight=35968.746527438692 40.548273192951456 4005.5271340607433 2701.4054917214671 1366.8270936605986 738.76240312121809 1256.5183790315641 5888.1620930235367 1219.6182506051846 1491.6537341477233 2560.9571070676902 335.06592619558796 1342.263166917488 1702.9019060779829 6120.0825014981674 345.054765978246 1381.920510051772 3228.8781005501514 1298.1547434527893 287.98916114529129 553.06535299867392 1853.4996218949091 36427.323792690178 188.48659453215078 6813.2401420960668 5278.8728812062182 577.67680735015892 82.411883204942569 3285.594194581965 6120.3738919098396 4786.6030192406615
leaf_count=13864751 26792 1499644 651793 780622 8254 160507 263024 18343 254961 190983 3881 255551 501784 573886 42694 12160 181871 43183 31934 9174 167139 119248 16064 122143 123411 142868 16623 142583 163826 110702
internal_value=0 -0.0204869 -0.0441775 0.00230532 0.00521619 -0.00569518 -0.0182034 0.00223885 0.015625 -0.0346249 -0.00552709 -0.00822733 -0.0395854 -0.000586535 -0.053766 0.0548837 0.00618578 0.00996109 -0.0241715 0.00609707 0.021881 0.0557809 0.0233879 0.0258914 0.0180305 -0.0201949 -0.0435478 0.0149136 0.00490466 -0.00159743
internal_weight=0 101398 49719.3 51679.1 48321.3 23591.1 13405.5 19503.2 24730.2 5840.04 7565.49 7230.43 3357.72 18283.6 36313.8 37849.8 9857.35 8365.69 1990.89 7067.54 14872.9 36467.9 14134.1 12280.6 5467.36 3138.63 4087.94 3838.66 12163.5 6043.12
internal_count=20500399 20342199 15415545 4926654 3612314 2543531 1508100 1027264 1068783 985644 522456 518575 1314340 1008921 13907445 158200 631772 376811 533718 333628 437011 146040 428757 261618 139475 333851 1516267 151757 435035 271209
is_linear=0
shrinkage=0.05


Tree=10
num_leaves=31
num_cat=0
split_feature=12 0 2 0 2 4 14 13 0 14 14 2 0 13 2 1 13 1 10 14 14 0 2 13 5 14 10 3 1 13
split_gain=49082.6 18346.3 3943.97 2266.4 2981.12 947.73 938.06 795.456 704.588 597.039 399.552 366.463 915.001 321.188 285.979 282.095 278.535 236.918 253.723 230.713 226.809 205.582 301.597 200.398 200.318 194.94 191.222 181.078 167.021 162.187
threshold=1.0000000180025095e-35 0.11805555555555557 9.5000000000000018 0.41666666666666669 2.5000000000000004 1.0000000180025095e-35 7.336879432624114 1.0000000180025095e-35 0.054093567251461992 3.4530220103578162 5.0574175824175827 4.5000000000000009 0.22500000000000003 1.0000000180025095e-35 19.500000000000004 2.5000000000000004 1.0000000180025095e-35 1.5000000000000002 3.0000000000000004 2.4949412365866128 2.5857374017568198 0.75000000000000011 1.5000000000000002 1.0000000180025095e-35 80.500000000000014 5.7923850574712654 3.0000000000000004 36.527000427246101 3.5000000000000004 1.0000000180025095e-35
decision_type=10 2 2 2 2 10 8 10 2 10 8 2 2 10 2 2 10 2 8 10 8 2 2 10 8 8 8 2 2 10
left_child=1 2 13 4 29 -5 7 11 14 17 16 12 -6 20 -4 -11 27 -7 -19 -13 -1 22 -20 -17 -8 26 -2 -10 -14 -3
right_child=25 3 8 5 6 9 24 -9 10 15 -12 19 28 -15 -16 23 -18 18 21 -21 -22 -23 -24 -25 -26 -27 -28 -29 -30 -31
leaf_value=-0.091963996033804715 0.066718267342457699 -0.089944552670739211 -0.097780688131914803 -0.1204929715207695 -0.090304195712468491 0.0075261630267970175 -0.045393350767097607 0.084394095129900717 -0.0014959246782534213 -0.022015390957447076 -0.078536189949098195 0.020539846967986584 -0.068039700444944257 -0.0044008248648284036 -0.040915676866723039 0.01041572972892215 0.10090111103578588 -0.011809880965628268 -0.086989035666756712 -0.0047484818573981825 -0.11039314030249321 0.058381630748874397 0.037459106562111287 0.063476326444658976 -0.12064374324828209 0.081003580076081466 0.10878403680049714 -0.042477626493406681 0.015290849176767497 0.039469845754158517
leaf_weight=9681.3071704512695 1122.7973211014178 4815.4104520622059 1815.0063908394659 439.06234967918135 1459.9175779630896 2076.5354591828072 787.79848291911185 1177.5226434546057 4702.2546532661654 2518.0778038354474 885.16779131014482 6862.5257518382277 265.79311314458027 322.72961733676493 1724.8485581191489 4871.5913348272443 231.31623914465308 776.23611862049438 201.61078324553091 7606.563416211342 21527.555013113917 7196.7655354894232 5712.3331860975595 833.58037420653272 642.0732964926865 3137.5870910421945 28781.333183220238 1398.9249797599623 2530.1559198379982 98.826750660780817
leaf_count=3079233 11270 2335701 474188 313007 396079 208385 199631 19218 202271 419521 220308 174639 59691 39182 194988 260007 2033 9022 20136 434862 10400349 148988 150887 29112 273385 48988 97942 130365 119981 27030
internal_value=0 -0.03714 -0.0858123 0.00332028 -0.0171246 0.0251108 -0.000948996 0.00467171 -0.0335283 0.027754 -0.0156054 -0.000341647 -0.0261364 -0.10365 -0.0700723 0.00586354 -0.00680887 0.0390304 0.0437413 0.00724549 -0.104676 0.0470302 0.0332166 0.0181684 -0.079184 0.104717 0.107205 -0.0108925 0.00736914 -0.087342
internal_weight=0 93161.5 42289.1 50872.4 26246.6 24625.8 21332.4 19902.5 10757.5 24186.7 7217.66 18725 4255.87 31531.6 3539.85 8223.25 6332.5 15963.5 13886.9 14469.1 31208.9 13110.7 5913.94 5705.17 1429.87 33041.7 29904.1 6101.18 2795.95 4914.24
internal_count=20500399 20342199 14742917 5599282 4040217 1559065 1677486 1204470 1224153 1246058 554977 1185252 575751 13518764 669176 708640 334669 537418 329033 609501 13479582 320011 171023 289119 473016 158200 109212 332636 179672 2362731
is_linear=0
shrinkage=0.1


Tree=11
num_leaves=31
num_cat=0
split_feature=12 0 2 14 0 2 0 2 13 1 14 0 2 14 14 13 13 0 1 4 2 14 13 14 14 10 13 14 2 13
split_gain=57363 21614 5557.15 2172.42 1718.87 2427.07 1525.9 846.789 766.598 598.898 486.023 427.897 560.411 403.043 377.65 354.71 313.734 275.904 274.202 254.773 232.879 223.493 221.13 219.254 205.071 207.311 201.241 193.272 157.464 155.893
threshold=1.0000000180025095e-35 0.15476190476190479 7.5000000000000009 16.019230769230774 0.41666666666666669 2.5000000000000004 0.080128205128205135 13.500000000000002 1.0000000180025095e-35 1.5000000000000002 4.9725975975975985 0.75000000000000011 1.5000000000000002 3.5180105035526723 4.0014925373134336 1.0000000180025095e-35 1.0000000180025095e-35 0.044466403162055343 2.5000000000000004 1.0000000180025095e-35 1.5000000000000002 3.3090828924162259 1.0000000180025095e-35 3.6677489177489182 3.3090828924162259 3.0000000000000004 1.0000000180025095e-35 5.4645989974937352 29.500000000000004 1.0000000180025095e-35
decision_type=10 2 2 8 2 2 2 2 10 2 8 2 2 10 8 10 10 2 2 10 2 8 10 10 10 8 10 8 2 10
left_child=1 2 16 4 5 26 7 -4 13 -6 15 12 -11 -7 17 -8 21 -9 -14 -2 -13 -1 23 -20 25 -22 -3 -18 -19 -16
right_child=19 3 6 -5 9 8 10 14 -10 11 -12 20 18 -15 29 -17 27 28 22 -21 24 -23 -24 -25 -26 -27 -28 -29 -30 -31
leaf_value=-0.032817706732898619 -0.045846583234777513 -0.02964619657630687 -0.033890880438177028 -0.036487127784712914 -0.0024940451978314863 0.0037163539155347534 0.00095763963758043131 -0.022018604550471305 0.02929346282839318 -0.033611212614122608 -0.022326388087554112 0.027933764490808966 -0.011605867229626133 -0.0084295130035075827 -0.031321827917141734 0.036890751857717424 0.0092159510722970312 0.0010647248846833886 0.011844712236637328 0.036355377954948496 -0.0037593593412531888 -0.038127652556017223 0.025353362559396981 -0.0010020065391520665 0.0084580591099876236 0.019798126991731231 0.025251795464359777 -0.045520770478022415 -0.017866342728853714 0.040007481201076694
leaf_weight=16982.944737423968 41.942843806929886 3304.5878023008117 3482.0701021770947 1478.7327879028162 3458.9021864474053 11970.920335491188 6110.7619768242585 1138.279786330997 1108.9090646146797 359.87234114913736 990.88282673363574 1729.6777990730479 679.33808962698095 4066.9790646174224 1166.9100813292898 321.28883724100888 277.91900147940032 2412.7016424848698 5643.7930834705476 35615.658229091205 444.76513693085872 18294.851398858707 973.43973312852904 1998.9257357064635 3723.418920846656 6216.9471742787864 75.896803336217999 96.584308700403199 612.02702324232087 35.067749004811049
leaf_count=5557673 26792 1313222 846958 825003 472708 437126 264923 139736 18454 37866 201387 29905 90479 447746 268597 2465 26032 127959 119211 131408 4508 8596489 18093 114567 182071 127048 16285 21603 33090 995
internal_value=0 -0.0130388 -0.0278825 0.00327772 0.00456282 -0.00259959 -0.0117397 -0.0210902 0.00248964 0.0103904 -0.000595228 0.0124375 0.00720284 0.000636338 -0.0127821 0.00275254 -0.0352492 -0.00803005 0.00878294 0.0362587 0.0166095 -0.0355714 0.0103905 0.0084847 0.0147234 0.0182253 -0.0284137 -0.00490064 -0.00276581 -0.0292408
internal_weight=0 99157.4 51922.3 47235.1 45756.4 20527.3 16270 8847.06 17146.8 25229.1 7422.93 21770.2 9655.37 16037.9 5364.99 6432.05 35652.3 4163.01 9295.5 35657.6 12114.8 35277.8 8616.16 7642.72 10385.1 6661.71 3380.48 374.503 3024.73 1201.98
internal_count=20500399 20342199 16087907 4254292 3429289 2232833 1886110 1417335 903326 1196456 468775 723748 380216 884872 570377 267388 14201797 300785 342350 158200 343532 14154162 251871 233778 313627 131556 1329507 47635 161049 269592
is_linear=0
shrinkage=0.0333333


Tree=12
num_leaves=31
num_cat=0
split_feature=12 0 2 14 0 2 0 13 2 1 4 14 14 13 0 2 0 13 14 4 1 13 2 2 13 10 10 0 2 1
split_gain=42976.6 16127.1 4230.27 1777.2 1421.06 1995.28 863.333 630.166 566.113 427.454 426.284 320.341 306.419 301.448 295.97 329.578 269.49 258.621 224.25 201.049 195.932 189.37 179.596 177.013 175.132 168.741 166.001 165.106 159.107 157.194
threshold=1.0000000180025095e-35 0.13392857142857145 8.5000000000000018 8.184697855750489 0.41666666666666669 2.5000000000000004 0.07417582417582419 1.0000000180025095e-35 14.500000000000002 1.5000000000000002 1.0000000180025095e-35 10.577380952380954 3.0009328358208962 1.0000000180025095e-35 0.75000000000000011 1.5000000000000002 0.046536796536796543 1.0000000180025095e-35 3.2504416961130747 1.0000000180025095e-35 2.5000000000000004 1.0000000180025095e-35 29.500000000000004 1.5000000000000002 1.0000000180025095e-35 1.0000000180025095e-35 3.0000000000000004 0.75000000000000011 29.500000000000004 3.5000000000000004
decision_type=10 2 2 8 2 2 2 10 2 2 10 8 10 10 2 2 2 10 8 10 2 10 2 2 10 10 8 2 2 2
left_child=1 2 13 4 5 -3 8 12 -4 27 -5 17 26 18 15 -11 -10 -8 -1 -2 -17 -22 -18 -16 -12 -21 -7 -6 -28 -25
right_child=19 3 6 10 9 7 11 -9 16 14 24 -13 -14 -15 23 20 22 -19 -20 25 21 -23 -24 29 -26 -27 28 -29 -30 -31
leaf_value=-0.092422342211027214 -0.13252598022072559 -0.078053967351603665 -0.095155540076073436 -0.11983444641539465 -0.074008851876956411 -0.052873948076602721 -0.0030238538030429567 0.080180198894171384 -0.06804358844257101 -0.084870221581080874 -0.053945898137648787 -0.10970618495624432 -0.018444154688888503 -0.0061735663921939814 0.07653731104052354 -0.031822183997516462 -0.00079099868617922532 0.10092022324658877 -0.10994302211776828 0.10474864714194709 0.022155073451099343 0.072417088523718892 -0.063580134062691751 0.014436000881986287 0.033293811071631312 0.065169990149274812 0.0094190862307551165 0.0013612267487457537 0.061128602466272032 0.046233747393325017
leaf_weight=13937.672869588772 36.199792539118789 3424.4998858987237 2373.0737319262698 1099.0445844355854 324.4827898707008 403.76615531882271 5425.3846449712873 1055.9287484670058 1476.8894778526155 291.22519499214832 1494.2594352622982 271.10258086817339 5653.180824170704 334.78126070857979 1490.4017029268434 597.96156222897116 2055.8415236744622 250.41564506012946 15351.220215709822 29069.313380940584 6949.7908373924438 840.22851925413124 585.21705495659262 1981.175004701945 271.99713240010897 1118.6598380922806 10231.647226037341 2787.3032487425953 631.78562519047409 7222.0161374588497
leaf_count=5319166 26792 1516267 640679 780622 162317 7908 294857 18343 252409 35614 501784 93990 573886 42694 26889 80160 168095 2518 8545585 119248 209229 16174 55552 122212 31934 12160 416649 259915 10478 156273
internal_value=0 -0.0350523 -0.0799778 0.00536709 0.010349 -0.00809573 -0.0310352 0.00523137 -0.0562528 0.0279048 -0.0709373 -0.00351026 0.00055413 -0.100527 0.0334308 0.0197109 -0.0338341 0.00156215 -0.101605 0.103 0.0233419 0.0275763 -0.0147041 0.0445662 -0.0405113 0.103282 0.0100863 -0.00649802 0.0124264 0.0393886
internal_weight=0 88812.3 42061.6 46750.7 43885.4 21400.8 12437.9 17976.3 6491.02 22484.6 2865.3 5946.9 16920.4 29623.7 19372.8 8679.21 4117.95 5675.8 29288.9 30224.2 8387.98 7790.02 2641.06 10693.6 1766.26 30188 11267.2 3111.79 10863.4 9203.19
internal_count=20500399 20342199 15415545 4926654 3612314 2543531 1508100 1027264 1116735 1068783 1314340 391365 1008921 13907445 646551 341177 476056 297375 13864751 158200 305563 225403 223647 305374 533718 131408 435035 422232 427127 278485
is_linear=0
shrinkage=0.1


Tree=13
num_leaves=31
num_cat=0
split_feature=12 0 2 0 2 14 4 14 14 0 2 13 13 1 0 13 13 14 14 14 13 10 4 10 2 14 2 0 6 4
split_gain=35505 13613.1 3160.08 1935.33 2673.58 1087.23 545.04 514.474 396.438 362.079 711.905 361.434 353.24 288.246 280.591 258.583 231.882 199.723 186.207 185.781 182.645 181.831 170.005 171.166 166.699 164.985 164.975 310.69 162.87 227.353
threshold=1.0000000180025095e-35 0.10555555555555557 10.500000000000002 0.22500000000000003 5.5000000000000009 5.00326797385621 1399.0000000000002 3.6966991341991347 1.0312500000000002 0.75000000000000011 1.5000000000000002 1.0000000180025095e-35 1.0000000180025095e-35 1.5000000000000002 0.051315789473684217 1.0000000180025095e-35 1.0000000180025095e-35 2.5857374017568198 2.7003937007874019 4.0529115341545365 1.0000000180025095e-35 1.0000000180025095e-35 1.0000000180025095e-35 1.0000000180025095e-35 20.500000000000004 1.0312500000000002 4.5000000000000009 0.18333333333333338 1.5000000000000002 1.5000000000000002
decision_type=10 2 2 2 2 8 8 8 10 2 2 10 10 2 2 10 10 8 10 10 10 10 10 10 2 10 2 2 10 10
left_child=1 2 16 4 26 9 20 14 -6 10 -5 19 18 -11 24 -9 17 -1 25 -10 -7 -15 -2 -24 -4 -12 -3 -28 -27 -30
right_child=22 3 7 5 8 6 -8 15 11 13 12 -13 -14 21 -16 -17 -18 -19 -20 -21 -22 -23 23 -25 -26 28 27 -29 29 -31
leaf_value=-0.029082413725869442 -0.043143188965121995 -0.029304457726876565 -0.027097622907247515 -0.021257746741452484 -0.035592296930913377 -0.0081346198034934376 -0.038806240479939656 -0.026194241935031382 0.0034203048303982431 0.0016828657618846591 -0.024906240073860678 0.030805124135063734 0.022584654545751457 0.015879253075791994 -0.00026801506399193152 0.036981001876066635 -0.0026794303332142257 -0.035429633906410712 0.0003258824332256177 -0.010047075214416598 0.010406463747257774 -0.0041498100375078617 0.033801700897290413 0.019960254186602511 -0.0064681773475845682 0.041042255322045931 -0.032686578914699324 0.004781934874217764 -0.039508225184077858 0.0085235496905670064
leaf_weight=8182.5246704717865 32.387408724520355 5006.3219638076844 807.03881774586625 1131.4723525853478 307.46647928212769 3857.8402116747166 611.79066238575615 1969.9194788530294 7268.6729130411986 2397.250303031411 167.20784729765728 487.8016068355646 1324.7889031248633 8472.9598728937563 4541.3868211575318 74.719257986638695 276.82603564090095 16854.370574910863 6384.9693954625982 1349.4286967254011 696.9843618843588 535.44848458003253 25957.950894288602 1032.1583916197997 944.67801958194468 167.80778859369457 503.14738276402932 480.93797578773228 111.02119529712945 7972.7224914897815
leaf_count=2988278 26792 2608551 188649 472747 110763 683568 518340 514470 274549 202274 10978 6293 31198 233501 219406 2134 36128 10045282 420190 195799 62420 6038 119248 12160 75916 1584 132664 33342 8944 258193
internal_value=0 -0.0108174 -0.0271574 0.000350545 -0.00944361 0.00480981 -0.0092653 -0.00935909 0.00163455 0.00734667 0.0043013 0.00289154 0.00609436 0.0119552 -0.00463942 -0.0238856 -0.0330198 -0.0333552 0.00461864 0.00131157 -0.00529744 0.0146888 0.0331808 0.0332724 -0.0159724 0.00787436 -0.0268519 -0.0143751 0.00853862 0.00786389
internal_weight=0 82887.5 33651.5 49236 15403.8 33832.3 5166.62 8337.74 9413.37 28665.6 17260 9105.9 16128.5 11405.7 6293.1 2044.64 25313.7 25036.9 14803.7 8618.1 4554.82 9008.41 27022.5 26990.1 1751.72 8418.76 5990.41 984.085 8251.55 8083.74
internal_count=20500399 20342199 14070263 6271936 3361961 2909975 1264328 1000575 587404 1645647 1203834 476641 731087 441813 483971 516604 13069688 13033560 699889 470348 745988 239539 158200 131408 264565 279699 2774557 166006 268721 267137
is_linear=0
shrinkage=0.0333333


Tree=14
num_leaves=31
num_cat=0
split_feature=12 0 2 0 2 14 14 4 13 14 13 0 1 10 0 2 14 14 13 1 10 4 0 13 13 0 3 2 13 5
split_gain=29339.3 11486.7 2931.22 1494.22 2325.44 733.44 474.604 456.029 438.373 435.291 291.214 289.97 244.266 287.385 275.091 242.108 218.222 215 213.749 184.415 163.544 161.511 160.041 149.069 148.508 142.202 141.338 141.641 138.054 133.278
threshold=1.0000000180025095e-35 0.10555555555555557 10.500000000000002 0.29166666666666669 3.5000000000000004 4.276521239954076 18.041666666666668 1.0000000180025095e-35 1.0000000180025095e-35 4.816702728693353 1.0000000180025095e-35 0.060661764705882359 3.5000000000000004 3.0000000000000004 0.75000000000000011 17.500000000000004 4.0014925373134336 2.5857374017568198 1.0000000180025095e-35 3.5000000000000004 1.0000000180025095e-35 1.0000000180025095e-35 0.75000000000000011 1.0000000180025095e-35 1.0000000180025095e-35 0.036375661375661381 30.774999618530277 9.5000000000000018 1.0000000180025095e-35 2.5000000000000004
decision_type=10 2 2 2 2 8 8 10 10 8 10 2 2 8 2 2 10 8 10 2 10 10 2 10 10 2 2 2 10 10
left_child=1 2 17 4 -3 12 8 -7 16 10 11 15 14 -14 -5 -4 26 23 22 -9 21 -2 -15 -1 -21 -17 -6 -28 -11 -22
right_child=20 3 9 5 6 7 -8 19 -10 28 -12 -13 13 18 -16 25 -18 -19 -20 24 29 -23 -24 -25 -26 -27 27 -29 -30 -31
leaf_value=-0.083733057774469696 -0.13119427732297181 -0.081589367382586181 -0.084855958303377166 -0.020937514950291707 0.0091477747497342027 -0.11556881375517923 -0.11069477230369006 -0.030474692899435427 0.078766169649215734 -0.087983129211719954 0.10662492023431543 -0.0017001667503112041 -0.021914134556211346 0.023183872216007474 0.022795609797720814 -0.092277584585424316 -0.030585836842546323 -0.10300278127157628 0.073412456757439834 -0.0010466597828340709 -0.27194492784009944 0.098261905505470259 0.046825576911614195 0.058942318097145174 0.060263821218280639 -0.011402553696619945 -0.059558664478183657 -0.0023004059543657194 0.097180052165374856 0.059938342371862553
leaf_weight=7503.3679122546164 30.716943202423863 4677.9921474953298 955.07035756192636 2123.4507498478633 9292.231464047567 416.68751322798198 381.10632654675283 2123.6169406315312 713.68521080282517 1147.7212836505496 188.53203821508214 3860.9199091872433 933.25999095547013 8261.1231856838567 4457.8306179197971 252.54794289893471 2184.8195654739975 15015.692667480354 1337.7504205452278 3088.2634623303893 12.257950591505503 23145.191573774267 4382.2362417377299 73.951811929000542 453.03094996931031 1562.4943081733072 625.84288792050211 1395.0457826990169 41.7301291662734 939.59003261942416
leaf_count=2988278 26792 2836069 251230 442185 415483 418890 211275 502247 12817 395611 2151 187197 12697 233151 269599 36996 393047 10076515 22003 226625 807 119248 92264 4895 17556 125717 105146 60882 1673 11353
internal_value=0 -0.0299967 -0.0776462 0.00112888 -0.0202354 0.0160581 -0.000567204 -0.014602 0.00238603 -0.025665 -0.0159286 -0.019413 0.0247325 0.0318137 0.00868511 -0.0441009 -0.00165246 -0.096073 0.0354001 -0.00717532 0.0962893 0.0979578 0.0313782 -0.0823406 0.00679667 -0.0226556 0.00393523 -0.0200325 -0.081487 0.0556643
internal_weight=0 77450 30602 46848 19270.7 27577.3 14592.7 6081.6 14211.6 8009.02 6819.56 6631.03 21495.7 14914.4 6581.28 2770.11 13497.9 22593 13981.1 5664.91 24127.8 23175.9 12643.4 7577.32 3541.29 1815.04 11313.1 2020.89 1189.45 951.848
internal_count=20500399 20342199 14070263 6271936 4034719 2237217 1198650 1165318 987375 1000575 603291 601140 1071899 360115 711784 413943 974558 13069688 347418 746428 158200 146040 325415 2993173 244181 162713 581511 166028 397284 12160
is_linear=0
shrinkage=0.1


Tree=15
num_leaves=31
num_cat=0
split_feature=12 0 2 0 2 4 14 4 14 1 13 13 0 13 10 14 10 0 13 5 3 1 0 2 6 14 14 14 13 1
split_gain=24202 9724.33 2399 1427.95 2234.3 739.021 568.041 328.07 323.9 303.635 301.552 291.611 272.343 212.892 192.395 190.465 187.608 174.299 166.496 159.709 157.404 173.513 151.754 251.636 149.492 144.129 142.67 137.331 135.684 133.875
threshold=1.0000000180025095e-35 0.095454545454545472 11.500000000000002 0.22500000000000003 5.5000000000000009 1.0000000180025095e-35 2.7003937007874019 1.0000000180025095e-35 3.7781293952180035 4.5000000000000009 1.0000000180025095e-35 1.0000000180025095e-35 0.41666666666666669 1.0000000180025095e-35 3.0000000000000004 3.5028089887640452 3.0000000000000004 0.044466403162055343 1.0000000180025095e-35 2.5000000000000004 74.066997528076186 1.5000000000000002 0.41666666666666669 2.5000000000000004 2.5000000000000004 2.4949412365866128 3.4337482359393503 3.1598319327731095 1.0000000180025095e-35 2.5000000000000004
decision_type=10 2 2 2 2 10 10 10 8 2 10 10 2 10 8 8 8 2 10 10 2 2 2 2 10 10 8 8 10 2
left_child=1 2 13 4 18 -5 14 -6 17 12 24 25 -8 15 -7 -1 19 -4 26 -2 21 -14 23 -16 -11 -9 -3 -18 -10 -24
right_child=16 3 8 5 7 6 9 11 28 10 -12 -13 20 -15 22 -17 27 -19 -20 -21 -22 -23 29 -25 -26 -27 -28 -29 -30 -31
leaf_value=-0.038307932022170851 -0.10139157317966271 -0.028234661663604891 -0.022211532005298906 -0.050937887268610593 -0.052241045447424451 -0.0094149948397478801 -0.026821227664901061 0.0069356385704651101 -0.032231247114223371 0.040529648764131121 0.029290667656569295 0.036942494617107358 -0.012679318064127296 0.00085243957123054342 -0.021683795886733682 -0.047169903264475323 0.045398392209204393 -0.0011147432929894605 0.016263891107305653 0.024221708850886887 -0.04699476695008107 0.0044116717738540744 0.0080376162407157919 0.011098209170892251 0.002018999629575535 -0.004157976496812427 -0.042567210628375526 0.038106426007703559 0.041096411311450233 0.020689656035081744
leaf_weight=10552.478078698216 20.464743143646047 3319.1733945186425 957.02688776853029 453.30756236359593 217.73661635973258 738.08955013833474 1122.9487962865678 4460.4912720598513 1328.8919598003849 203.88039769232273 949.94699571467936 473.45237117097713 1784.5575199252926 228.16808909655083 516.84910161438165 8773.6061981136736 11560.655698767863 4035.3604914182797 132.38368320011068 868.61271863942966 154.27346643188503 3425.9652733110706 2224.7528685297584 4400.610377751058 8509.3742915451876 4805.7813203795813 2338.432200413401 9131.3813089418691 51.788153328932822 6417.0990802511806
leaf_count=5443378 807 1348961 171192 515749 121591 11012 591258 143992 415536 2892 25421 7052 371991 33325 186886 7096493 53390 236002 25714 11343 40580 292257 177759 125072 433283 433014 1954316 92660 1658 135815
internal_value=0 -0.0122872 -0.0341091 -0.000158751 -0.0110515 0.0053922 0.00623083 0.00171427 -0.0104281 0.000519261 0.00551248 0.00292047 -0.00691791 -0.0418272 0.0126829 -0.0423311 0.0413215 -0.00515894 -0.0330058 0.0213303 -0.00275179 -0.00144184 0.0138857 0.00765266 0.00292011 0.00118214 -0.0341587 0.0421805 -0.0294808 0.0174325
internal_weight=0 72576.4 25927.3 46649.1 15747.5 30901.7 30448.3 9957.46 6373.07 16150.9 9663.2 9739.72 6487.75 19554.3 14297.4 19326.1 21581.1 4992.39 5789.99 889.077 5364.8 5210.52 13559.3 4917.46 8713.25 9266.27 5657.61 20692 1380.68 8641.85
internal_count=20500399 20342199 13397584 6944615 4034640 2909975 2394226 705649 824388 1757682 461596 584058 1296086 12573196 636544 12539871 158200 407194 3328991 12150 704828 664248 625532 311958 436175 577006 3303277 146050 417194 313574
is_linear=0
shrinkage=0.0444444


Tree=16
num_leaves=31
num_cat=0
split_feature=12 0 2 14 0 2 0 14 2 1 13 14 13 13 0 2 13 10 0 14 14 1 10 2 14 0 4 2 5 2
split_gain=30074.2 11906.1 3706.99 1313.99 1015.23 1609.36 684.336 577.413 419.046 322.795 316.964 296.509 290.061 289.517 278.989 375.385 263.7 236.983 233.997 211.656 201.268 181.173 174.472 174.018 171.261 168.799 157.058 149.869 149.086 126.956
threshold=1.0000000180025095e-35 0.13392857142857145 8.5000000000000018 14.849002849002851 0.29166666666666669 4.5000000000000009 0.06458333333333334 2.7003937007874019 16.500000000000004 1.5000000000000002 1.0000000180025095e-35 1.0312500000000002 1.0000000180025095e-35 1.0000000180025095e-35 0.22500000000000003 3.5000000000000004 1.0000000180025095e-35 1.0000000180025095e-35 0.75000000000000011 3.5028089887640452 8.4732057416267956 3.5000000000000004 3.0000000000000004 1.5000000000000002 2.443231323936947 0.039230769230769243 1.0000000180025095e-35 29.500000000000004 2.5000000000000004 29.500000000000004
decision_type=10 2 2 8 2 2 2 10 2 2 10 10 10 10 2 2 10 10 2 8 8 2 8 2 10 2 10 2 10 2
left_child=1 2 12 4 5 14 8 17 -4 -9 18 -8 19 -7 -3 -16 24 29 21 -1 25 -11 28 -20 -13 -10 -24 -27 -2 -6
right_child=22 3 6 -5 7 13 11 9 20 10 -12 16 -14 -15 15 -17 -18 -19 23 -21 -22 -23 26 -25 -26 27 -28 -29 -30 -31
leaf_value=-0.029270205976584598 -0.075433090487849297 -0.027769615453211334 -0.030155171586893792 -0.032531773270765854 0.012226602434163328 0.0015735726093503136 -0.036753430158042971 -0.010593005288791113 -0.024589566411444556 -0.014011357656676413 0.017682031025521683 0.0039187908068866253 0.0012555620150573642 0.026898393177274757 -0.024692309819737916 0.0079268335767582847 0.032262880352281254 -0.0073384809938837744 0.024731783781274375 -0.035579758511197157 -0.03917522398752505 0.00051964269860221835 -0.042092662905017598 0.0052860697489332245 -0.0070976378141233247 0.0026726974018659545 0.032870651386333945 -0.018476091795689379 0.020331895561506236 0.030807628136685094
leaf_weight=12801.05821400907 18.40031014662236 2755.1025657688151 1997.7147236000746 1206.8974314523512 11447.492522827582 9606.9595173159032 263.0582494167611 1946.5154025877127 492.03819316904992 1156.6757971008192 1635.3063496297691 2909.9439055050025 291.79653715493623 529.20802994817495 884.08159972546855 704.28288636344951 259.59428276121616 680.39590723603033 589.57434699591249 10969.376420381013 239.21915638964856 5423.9426737321191 31.095261365640908 3853.0362421124009 3399.9205667406204 1453.264858200273 23521.767864841619 500.53163670038339 984.35576130170375 423.69760135561228
leaf_count=5991182 807 1324826 651793 957169 462648 462190 92412 475165 87060 237478 66375 102708 42694 7880 400217 38830 3244 9265 12572 7873569 83702 269375 26792 198148 324092 116020 119258 47069 11343 4516
internal_value=0 -0.0100802 -0.024333 0.00175558 0.00274946 -0.00437879 -0.00877934 0.00655017 -0.0185949 0.00204427 0.00398751 -0.0020521 -0.0317764 0.00289578 -0.0213552 -0.0102289 -0.000662564 0.0117932 0.00195592 -0.0321819 -0.00999392 -0.00203447 0.0321919 0.00786669 -0.00201715 -0.00713979 0.0327717 -0.00274529 0.0185746 0.0128898
internal_weight=0 78420.7 35577.5 42843.2 41636.3 14479.6 11515.3 27156.6 4682.77 14605.1 12658.5 6832.52 24062.2 10136.2 4343.47 1588.36 6569.46 12551.6 11023.2 23770.4 2685.05 6580.62 24555.6 4442.61 6309.86 2445.83 23552.9 1953.8 1002.76 11871.2
internal_count=20500399 20342199 15415545 4926654 3969485 2233943 1508100 1735542 985644 1259113 783948 522456 13907445 470070 1763873 439047 430044 476429 717573 13864751 333851 506853 158200 210720 426800 250149 146050 163089 12150 467164
is_linear=0
shrinkage=0.0333333


Tree=17
num_leaves=31
num_cat=0
split_feature=12 0 2 0 2 14 14 13 4 14 14 13 0 14 10 1 13 0 14 10 13 3 10 13 5 2 4 6 2 0
split_gain=21762.8 8842.99 1979.44 1414.83 2275.64 666.942 364.569 324.985 315.694 297.605 252.547 203.902 199.899 196.601 194.598 183.568 222.447 187.333 166.874 161.69 161.323 152.796 144.674 137.438 137.189 135.658 132.469 128.83 128.434 123.406
threshold=1.0000000180025095e-35 0.087121212121212141 12.500000000000002 0.22500000000000003 4.5000000000000009 6.0042735042735051 19.027777777777782 1.0000000180025095e-35 1.0000000180025095e-35 2.6195238095238103 8.9843750000000018 1.0000000180025095e-35 0.048809523809523817 2.9525684289463823 1.0000000180025095e-35 3.5000000000000004 1.0000000180025095e-35 0.75000000000000011 3.33433133732535 3.0000000000000004 1.0000000180025095e-35 9.7710003852844256 1.0000000180025095e-35 1.0000000180025095e-35 2.5000000000000004 29.500000000000004 1.0000000180025095e-35 2.5000000000000004 20.500000000000004 0.41666666666666669
decision_type=10 2 2 2 2 8 8 10 10 10 8 10 2 8 10 2 10 2 10 8 10 2 10 10 10 2 10 10 2 2
left_child=1 2 13 4 23 9 7 18 -7 19 11 12 28 20 26 17 27 -11 22 -5 -1 -14 -6 -3 -16 29 -2 -17 -4 -21
right_child=14 3 10 5 6 8 -8 -9 -10 15 -12 -13 21 -15 24 16 -18 -19 -20 25 -22 -23 -24 -25 -26 -27 -28 -29 -30 -31
leaf_value=-0.08315208482417788 -0.12776865985654592 -0.082129653540761863 -0.090750347247235658 -0.019966829760022661 0.0081385110952047254 -0.11408041947494151 -0.11120624275343993 0.079264251996475243 -0.020257391917610352 -0.039283875587803219 -0.1057511089372995 0.10437070589098896 0.0097519732916458921 -0.10295917938500697 -0.218066606701418 0.085933555721881258 0.060193945891447179 0.0044573008076398257 -0.022791913459879413 0.014175202079379513 0.056396070983486757 -0.034629534867906153 -0.071749179586466122 0.030256406483864504 0.051687766265565552 0.082487094334620981 0.094546609993318709 0.0070483938910119561 -0.028402931207414491 0.035407540131693088
leaf_weight=7646.1823317312228 26.840263383695856 5099.2891836296476 536.86743910075165 687.75211450119969 7986.5814639959135 415.59121802350273 289.16594915755559 525.974939373089 2616.6006983217667 1514.2756903365662 345.1282608062902 134.12822245247662 2029.7823008337873 9822.1071912658517 19.284608650952578 212.07424928620458 935.13042163616046 2770.4706607625121 2697.8208944591461 4276.7754578220483 83.748874349636026 1255.5668754543294 233.31123539188411 111.18628020188771 842.39628732460551 470.98385448008776 19055.004932209442 8698.6967021600576 859.14708080678247 7605.2784868880408
leaf_count=3813477 26792 3624372 178194 10386 402102 515749 179971 9034 546324 592013 155416 1840 108499 8220417 807 3337 23999 255176 458852 280014 6105 131319 6529 26373 11353 5724 119248 394378 109724 282875
internal_value=0 -0.0263026 -0.0775627 -0.00160852 -0.0247374 0.0113661 -0.000314975 0.00248709 -0.0331167 0.0163302 -0.0231188 -0.0171965 -0.0206796 -0.0935703 0.0921348 0.00627625 0.0137951 -0.0110013 -0.00121175 0.0272243 -0.0816402 -0.00720937 0.005871 -0.0797314 0.0456506 0.0298516 0.0942339 0.00892584 -0.05238 0.0277653
internal_weight=0 69859.6 22712.7 47147 16943.3 30203.6 11732.9 11443.7 3032.19 27171.4 5160.62 4815.49 4681.36 17552 19943.5 14130.6 9845.9 4284.75 10917.7 13040.8 7729.93 3285.35 8219.89 5210.48 861.681 12353 19081.8 8910.77 1396.01 11882.1
internal_count=20500399 20342199 12724991 7617208 4707233 2909975 1056488 876517 1062073 1847902 684992 529576 527736 12039999 158200 1268903 421714 847189 867483 578999 3819582 239818 408631 3650745 12160 568613 146040 397715 287918 562889
is_linear=0
shrinkage=0.1


Tree=18
num_leaves=31
num_cat=0
split_feature=12 0 2 14 0 2 4 14 1 0 13 13 0 13 14 13 10 13 2 0 2 14 14 1 2 5 14 4 6 4
split_gain=22072.3 8875.13 2675.09 1158.02 858.739 1617.76 470.42 366.053 292.629 357.378 340.283 226.083 212.249 201.743 200.212 196.771 194.308 179.56 164.102 160.208 186.139 149.286 176.495 147.204 223.116 146.971 135.802 133.15 132.415 217.92
threshold=1.0000000180025095e-35 0.10555555555555557 10.500000000000002 6.0042735042735051 0.22500000000000003 5.5000000000000009 1.0000000180025095e-35 3.0009328358208962 3.5000000000000004 0.75000000000000011 1.0000000180025095e-35 1.0000000180025095e-35 0.75000000000000011 1.0000000180025095e-35 2.5857374017568198 1.0000000180025095e-35 1.0000000180025095e-35 1.0000000180025095e-35 1.5000000000000002 0.06458333333333334 16.500000000000004 2.7003937007874019 1.0312500000000002 1.5000000000000002 1.5000000000000002 2.5000000000000004 19.027777777777782 1.0000000180025095e-35 1.5000000000000002 1.5000000000000002
decision_type=10 2 2 8 2 2 10 8 2 2 10 10 2 10 8 10 10 10 2 2 2 10 10 2 2 10 8 10 10 10
left_child=1 2 11 4 5 -3 -5 19 9 18 12 14 21 -8 -1 -7 27 26 -6 20 -4 22 -10 -11 -25 -18 -9 -2 -24 -30
right_child=16 3 7 6 8 15 13 17 10 23 -12 -13 -14 -15 -16 -17 25 -19 -20 -21 -22 -23 28 24 -26 -27 -28 -29 29 -31
leaf_value=-0.03979222524171392 -0.063831701146936967 -0.033779164598736949 -0.036970696630972598 -0.057545070948099186 -0.031294105127375987 0.0033124040390411138 -0.020541322364449572 -0.024454994568045323 -0.047005643982456401 -0.0011674141243484119 0.032619487675050844 0.0023933060918544038 0.017819756245396209 0.014465642533378641 -0.050683382189028819 0.040439723822324317 -0.10140818289645748 0.040761581013856032 -0.0056650891768255445 0.0050848207406101109 -0.0041750279737473514 2.2310184922215969e-05 0.060336174161556205 0.03464009197008891 0.0044348419117434595 0.026460654607432306 -0.0597400740214361 0.047368285170605956 -0.066402429608082 0.011969115426780447
leaf_weight=6481.4160792701878 26.957580018264707 4023.8649263188126 593.03539678832749 836.50573765096487 961.42072705287137 7691.3402050792938 3097.5739046035451 2128.1446147635579 129.49569229013287 2356.2270050314255 1712.8016462681117 235.72779550391715 5208.5965652002487 474.61512969946489 12092.432710883964 374.23730421043001 23.083569491282105 95.930283247493207 1782.7239986607456 2743.0055852667429 1599.8578000145499 5920.846548708214 138.34608094766736 997.31364177144133 1579.8463691856014 848.29264842905104 312.76119406570797 19226.644992851769 89.906514467904344 6606.4669529160601
leaf_count=2988278 26792 1952571 152701 929374 513273 372182 1111113 467306 7241 229395 34187 36128 125316 53868 10045282 4926 807 2561 339716 98932 124955 301382 1139 22121 107209 11353 154120 119248 6013 160910
internal_value=0 -0.0132232 -0.0362109 0.000513568 0.00322154 -0.0078839 -0.0237938 -0.0109029 0.00810651 -0.000180185 0.0113187 -0.0462653 0.00930225 -0.0158902 -0.0468829 0.00503509 0.0461674 -0.0263391 -0.0146443 -0.00296941 -0.0130441 0.00585918 0.0108216 0.00786533 0.0161237 0.0230733 -0.0289762 0.0472126 0.0119172 0.0109169
internal_weight=0 70264.4 26282.3 43982.1 39573.4 12089.4 4408.69 7472.73 27484 7677.53 19806.5 18809.6 18093.7 3572.19 18573.8 8065.58 20125 2536.84 2744.14 4935.9 2192.89 12885.1 6964.22 4933.39 2577.16 871.376 2440.91 19253.6 6834.72 6696.37
internal_count=20500399 20342199 14070263 6271936 4177581 2329679 2094355 1000575 1847902 1211714 636188 13069688 602001 1164981 13033560 377108 158200 623987 852989 376588 277656 476685 175303 358725 129330 12160 621426 146040 168062 166923
is_linear=0
shrinkage=0.05


Tree=19
num_leaves=31
num_cat=0
split_feature=12 0 2 0 2 4 14 14 14 13 1 13 0 13 10 14 13 10 0 3 1 1 0 14 13 13 14 14 6 13
split_gain=22540.3 9149.1 2364.54 1354.8 2221.4 686.353 507.823 329.221 323.128 273.685 272.155 289.07 274.15 228.767 189.971 187.867 186.703 224.53 174.42 151.587 162.591 151.011 180.763 147.278 143.137 143.077 132.717 129.611 128.737 128.01
threshold=1.0000000180025095e-35 0.095454545454545472 11.500000000000002 0.22500000000000003 5.5000000000000009 1.0000000180025095e-35 2.7306623931623935 3.6966991341991347 1.0312500000000002 1.0000000180025095e-35 4.5000000000000009 inf 0.41666666666666669 1.0000000180025095e-35 3.0000000000000004 2.5857374017568198 1.0000000180025095e-35 3.0000000000000004 0.044466403162055343 74.066997528076186 1.5000000000000002 3.5000000000000004 0.75000000000000011 2.4949412365866128 1.0000000180025095e-35 1.0000000180025095e-35 3.4337482359393503 3.2914029535864984 2.5000000000000004 1.0000000180025095e-35
decision_type=10 2 2 2 2 10 10 8 10 10 2 8 2 10 8 8 10 8 2 2 2 2 2 10 10 10 8 8 10 10
left_child=1 2 13 4 24 -5 14 18 -6 23 12 -12 -8 15 -7 -1 17 -2 -4 20 -14 22 -16 -10 26 -9 -3 -19 -13 -23
right_child=16 3 7 5 8 6 10 25 9 -11 11 28 19 -15 21 -17 -18 27 -20 -21 -22 29 -24 -25 -26 -27 -28 -29 -30 -31
leaf_value=-0.026984296744181742 0.00011468172259770155 -0.021394906656538419 -0.016356753206489792 -0.038054037569294867 -0.033902428202592094 -0.007377075551228322 -0.020368459990507626 -0.023616212787837737 0.0055199987827240816 0.027442702990044886 0.021817613037464902 0.028732906865088493 -0.0091861670311818681 0.0022318111498808154 -0.0055344012491708172 -0.034051753381021059 0.033077636426426221 0.031134528917774278 -0.00022402021844869255 -0.03490810208868176 0.0034185751451560162 0.010913280120520253 0.0097419885266665437 -0.0029540449655479327 0.0091694416555050777 0.032114417878946068 -0.031925071456602803 0.022141490394635751 0.0014083716411884286 0.024857344173341293
leaf_weight=6418.8900367165625 341.15576212550513 3237.9288153000816 920.54742307198467 427.00721659613191 280.68572084431071 746.00540104473475 1072.2408184271771 1373.1911359181977 4385.6191450668266 460.92586113174912 907.44648763781879 196.06734159262851 1725.8073948472156 224.9821294916328 1358.4354363332968 11976.515970534761 12791.221822371765 4741.9699909003684 3896.3815370732918 149.77910038805567 3333.1490946839913 9252.6377215191606 2348.6715697813779 4743.8252303673071 133.83652466256171 53.166232738643885 2256.8070294240897 2851.4534038409474 8376.0335646821186 794.31336779752746
leaf_count=2884477 6935 1348961 167469 515749 128084 11192 584781 424631 137539 7012 25210 2892 368265 33325 297320 9655394 79444 28731 230596 40239 289467 217795 117215 433014 25714 1692 1954316 43090 429156 10694
internal_value=0 -0.00892201 -0.0252248 -0.000145846 -0.00817881 0.00391142 0.0045036 -0.00747238 0.00135024 0.00238199 0.000361735 0.00392724 -0.0050195 -0.031177 0.00900551 -0.0315856 0.0305859 0.026569 -0.00330709 -0.00185984 -0.000881394 0.00989408 0.0041441 0.00111673 -0.0248903 -0.0215389 -0.0257199 0.0277575 0.00203336 0.0120157
internal_weight=0 71050.9 24863.7 46187.2 15499.6 30687.6 30260.6 6243.29 9871.06 9590.37 15760.5 9479.55 6280.98 18620.4 14500.1 18395.4 20725.8 7934.58 4816.93 5208.74 5058.96 13754.1 3707.11 9129.44 5628.57 1426.36 5494.74 7593.42 8572.1 10047
internal_count=20500399 20342199 13397584 6944615 4034640 2909975 2394226 824388 705649 577565 1740010 457258 1282752 12573196 654216 12539871 158200 78756 398065 697971 657732 643024 414535 570553 3328991 426323 3303277 71821 432048 228489
is_linear=0
shrinkage=0.0333333


end of trees

feature_importances:
cart_order_interaction_ratio=121
buy_rank=116
session_unique_aids=109
last_click=97
session_total_interactions=44
order_num_recurring_aids=35
order_aid_unique_sessions=33
last_cart=21
session_length=9
order_aid_total_interactions=7
cart_aid_unique_sessions=7
cart_aid_total_interactions=1

parameters:
[boosting: dart]
[objective: lambdarank]
[metric: ndcg]
[tree_learner: serial]
[device_type: cpu]
[data: ]
[valid: ]
[num_iterations: 20]
[learning_rate: 0.1]
[num_leaves: 31]
[num_threads: -1]
[deterministic: 0]
[force_col_wise: 0]
[force_row_wise: 0]
[histogram_pool_size: -1]
[max_depth: -1]
[min_data_in_leaf: 20]
[min_sum_hessian_in_leaf: 0.001]
[bagging_fraction: 1]
[pos_bagging_fraction: 1]
[neg_bagging_fraction: 1]
[bagging_freq: 0]
[bagging_seed: 400]
[feature_fraction: 1]
[feature_fraction_bynode: 1]
[feature_fraction_seed: 30056]
[extra_trees: 0]
[extra_seed: 12879]
[early_stopping_round: 0]
[first_metric_only: 0]
[max_delta_step: 0]
[lambda_l1: 0]
[lambda_l2: 0]
[linear_lambda: 0]
[min_gain_to_split: 0]
[drop_rate: 0.1]
[max_drop: 50]
[skip_drop: 0.5]
[xgboost_dart_mode: 0]
[uniform_drop: 0]
[drop_seed: 17869]
[top_rate: 0.2]
[other_rate: 0.1]
[min_data_per_group: 100]
[max_cat_threshold: 32]
[cat_l2: 10]
[cat_smooth: 10]
[max_cat_to_onehot: 4]
[top_k: 20]
[monotone_constraints: ]
[monotone_constraints_method: basic]
[monotone_penalty: 0]
[feature_contri: ]
[forcedsplits_filename: ]
[refit_decay_rate: 0.9]
[cegb_tradeoff: 1]
[cegb_penalty_split: 0]
[cegb_penalty_feature_lazy: ]
[cegb_penalty_feature_coupled: ]
[path_smooth: 0]
[interaction_constraints: ]
[verbosity: -1]
[saved_feature_importance_type: 0]
[linear_tree: 0]
[max_bin: 255]
[max_bin_by_feature: ]
[min_data_in_bin: 3]
[bin_construct_sample_cnt: 200000]
[data_random_seed: 175]
[is_enable_sparse: 1]
[enable_bundle: 1]
[use_missing: 1]
[zero_as_missing: 0]
[feature_pre_filter: 1]
[pre_partition: 0]
[two_round: 0]
[header: 0]
[label_column: ]
[weight_column: ]
[group_column: ]
[ignore_column: ]
[categorical_feature: ]
[forcedbins_filename: ]
[precise_float_parser: 0]
[objective_seed: 16083]
[num_class: 1]
[is_unbalance: 0]
[scale_pos_weight: 1]
[sigmoid: 1]
[boost_from_average: 1]
[reg_sqrt: 0]
[alpha: 0.9]
[fair_c: 1]
[poisson_max_delta_step: 0.7]
[tweedie_variance_power: 1.5]
[lambdarank_truncation_level: 30]
[lambdarank_norm: 1]
[label_gain: ]
[eval_at: 1,2,3,4,5]
[multi_error_top_k: 1]
[auc_mu_weights: ]
[num_machines: 1]
[local_listen_port: 12400]
[time_out: 120]
[machine_list_filename: ]
[machines: ]
[gpu_platform_id: -1]
[gpu_device_id: -1]
[gpu_use_dp: 0]
[num_gpu: 1]

end of parameters

pandas_categorical:[]
